0.4514161950 0.5342940911 0.6524871966 1.0526799751 -0.1484144465 0.3317600762 -0.0597708229 0.7136949047 -0.0554861319 0.7585522567 0.7519336062 0.9271905375 0.8731234656 0.1256533720 0.3534939875 0.7742464269 0.5511468660 0.6920991101 0.6796209479 0.9340310189 0.9903001844 0.8438122138 -0.0722694080 1.3221702721 0.9279417464 -0.3500385137 -0.7753048478 0.5957666459 0.9871676760 0.0298336168 0.5259715035 0.3058635344 -0.1056545733 0.3666873745 2.0594929327 -0.0835319910 -0.6570047355 0.8338593174 1.0820784729 0.0486439806 0.9226214861 0.8497611070 0.0946670442 -0.2213936105 1.4105602208 0.4597488535 0.1386507833 0.4274098631 0.6918927060 1.2743055973 1.0230844012 0.6696193665 0.6171000584 1.6605815714 0.9869170181 1.7879260117 0.7509248774 0.2938705481 2.4441157772 0.0738962467 0.2775038213 1.6718912602 2.5452593359 0.7377612439 0.9819073390 0.8035715834 -1.2508363734 2.3648380878 0.7732172961 1.9196772933 2.0158918358 -0.1206539462 3.0420858991 -1.1718429818 -5.2070221754 -3.8840559775 -8.6024946190 -1.9232929001 3.1911547483 9.1416049686 -7.1516546617 -0.8811502622 0.1899684512 -0.5807084484 -7.3101379450 4.0450577067 -5.2462055758 -2.9570995813 -3.7552112853 -3.1319564871 6.8494943639 1.3583465542 