-0.0646111 0.830975 0.914728 0.351194 0.638792 0.630807 -0.155595 0.50701 0.332748 0.522449 0.170713 -0.207774 0.290689 0.572087 -0.276586 0.0265754 0.986395 0.719113 -0.347665 0.399688 0.0138846 1.08786 1.0441 0.157712 -0.956698 -0.182825 0.281981 0.706331 0.842657 0.475382 0.011117 -0.642639 -0.0775016 0.0438108 0.545633 0.867435 0.624602 0.430981 -0.148808 1.10986 0.515288 0.796178 0.582044 0.660775 0.421379 0.857199 0.270908 0.59191 0.39637 0.290168 0.510923 0.987019 0.702598 0.754438 0.206434 0.701231 0.136639 0.527598 0.802209 0.871871 3.1465 1.38082 0.766381 -0.426553 -0.138013 -0.112545 -0.460039 1.12323 1.01189 1.21669 0.562432 0.0512908 0.160254 -0.213935 0.141744 0.352414 0.194306 0.613731 0.900201 1.59507 0.754901 -0.16615 -0.30756 0.25067 1.40154 0.66773 1.20817 0.464745 1.03023 0.705422 1.08454 0.71755 0.843776 0.616355 0.501672 0.995306 1.1695 0.558639 0.531515 0.822081 0.170228 -0.0205644 -5.95967 0.141243 0.431757 -0.320209 1.68509 0.613384 -5.39182 6.18331 -2.16306 1.2593 2.46984 -2.40872 -2.24529 -0.678215 -2.73974 2.38331 -1.96202 -1.70317 0.59113 1.28268 0.52807 